{
  "modelType": "passive-aggressive",
  "weights": [
    -0.24929414800343683,
    0.27921704525967755,
    0.3271864365122426,
    0.20207288478939714,
    0.6179127084036621,
    -0.09276463827681637,
    -0.18114177456593303,
    0.2498786798670058,
    0.06644926506461912,
    -0.13257189846304107,
    -0.06882375889308892,
    0.1694859154385123,
    -0.08268813279328939,
    -0.15208389437915862,
    0.723884059068678,
    -0.4898402520015659,
    -0.32076980797888666,
    -0.6526527077607586,
    0.733068247330246,
    0.0778985387969639,
    0.16559188101993078,
    0.06445902025961445,
    -0.0962214354875983,
    -0.18114177570526765,
    0.0832629935822574,
    0.06644926505423,
    0.20853192494870706,
    -0.06882375931180933,
    -0.14967616170172882,
    -0.16893929787781262,
    0.03819679209612202,
    0.03819679209612202,
    -0.5065481205818344,
    0.3131638939150466,
    -0.47030836508074825,
    -0.03998186227283153,
    -0.018929606707836458,
    0.034390701015176134,
    0.12390136184337541,
    -0.04640901082495814,
    0.4542922321260527,
    -0.5527752183053668,
    -0.18096206671259302,
    0.11275052483035893,
    0.32279560963591547,
    0.040060467001200833,
    0.24706272605433238,
    -0.19195231587904021,
    -0.18876602368057616,
    -0.06472662446024555,
    0.24648274485863744,
    0.30813193611493633,
    0.27724026775785116,
    0.007398137937812913,
    -0.31834341249125003
  ],
  "bias": -0.02430626923860292,
  "featureCount": 55,
  "samplesProcessed": 92092,
  "lastUpdated": "2026-01-04T17:21:45.546682",
  "version": 1,
  "metrics": {
    "accuracy": 0.4933547602501737,
    "precision": 0.49111637548119635,
    "recall": 0.2873105240363794,
    "f1_score": 0.3625334717744139,
    "roc_auc": 0.48556830253720706,
    "samples_trained": 92092
  }
}