{
  "modelType": "sgd",
  "weights": [
    -0.07974220091524145,
    -0.09836630210693466,
    0.00028943011080131113,
    -0.009329053031864404,
    -0.020448411131120215,
    0.00928109099785492,
    -0.06175598241724677,
    0.011366032440068839,
    0.02014377663752786,
    -0.025648990174684676,
    0.016134032113864816,
    0.040227606798509896,
    0.013255404224972133,
    0.010115592294118054,
    0.036286760897836584,
    -0.038694949527583025,
    0.017151531764035537,
    -0.06063185917430827,
    0.00022998708984384812,
    -0.07489053565375338,
    0.01895835002695341,
    0.03229071790446391,
    -0.017398690617177935,
    -0.061755982651363936,
    0.0641753814088583,
    0.020143776727527,
    0.025954794087502668,
    0.01613403219292011,
    0.04052585932687478,
    0.037589107293915146,
    0.017598097725690168,
    0.017598097725690168,
    -0.1052956806112998,
    0.07750094784358097,
    -0.07072778677971688,
    0.07939242264631625,
    -0.11883086815208979,
    0.03736120274932426,
    0.06851228927788378,
    0.005222040930973801,
    -0.033099037712664425,
    -0.05454801045755114,
    0.005120770482238998,
    0.08020551771660009,
    -0.023221924433269054,
    0.058727889679612226,
    -0.05997841306253849,
    0.006574852101308422,
    0.01491318335540893,
    -0.02904627323039572,
    0.01300202347827147,
    -0.02586168326005625,
    0.02172592561905105,
    -0.03230890135676944,
    0.046131419687920575
  ],
  "bias": 0.0832818759647802,
  "featureCount": 55,
  "samplesProcessed": 92092,
  "lastUpdated": "2026-01-04T17:21:45.544616",
  "version": 1,
  "metrics": {
    "accuracy": 0.5236709520500348,
    "precision": 0.5220039591898888,
    "recall": 0.5938501515807709,
    "f1_score": 0.5556140848494672,
    "roc_auc": 0.533668686272192,
    "samples_trained": 92092
  }
}