{
  "modelType": "passive-aggressive",
  "numClasses": 3,
  "classLabels": [
    "SHORT",
    "HOLD",
    "LONG"
  ],
  "weights": [
    [
      -0.19243828917656747,
      0.587805811678197,
      -0.9609650498129806,
      0.6609408453864799,
      -0.6413121166295819,
      0.7951500398121323,
      -0.5765219410715986,
      0.6541114255386733,
      -0.5746775460276226,
      1.5384506474706858,
      -1.2384998204775357,
      1.1165569418504844,
      -0.38169752414150426,
      -0.09320538455866727,
      0.05758934086007359,
      0.42077861133305816,
      -0.40678258787541943,
      0.12424464018693919,
      0.07488134283117813,
      0.1999708655099728,
      0.027847983581933106,
      0.16455315288084088,
      -0.1289153988815132,
      -0.5765219428719282,
      0.034978376667395505,
      -0.5746775487617294,
      -0.1613798997656061,
      -1.2384998265439024,
      -0.012267473386461244,
      -0.037592825735603054,
      0.08489220961139908,
      0.08489220961139908,
      0.2676939135886076,
      -0.37841812519158735,
      0.02674960393643052,
      -0.12294944009934322,
      0.32800220800093677,
      0.2890413304207337,
      0.13451007107965499,
      0.708756384804284,
      -0.03488821701157088,
      -0.045492950262555974,
      -0.09123837213000086,
      -0.4621927795939857,
      0.024445498930579908,
      0.1725877689844486,
      -0.15235162846549885,
      0.011686945726743704,
      -0.13485885243065082,
      -0.09069434908838364,
      -0.30776413184527013,
      -0.20852283130039387,
      0.16283697601258704,
      0.2760943366841353,
      0.08202960797969813,
      -0.30580122460386894,
      -0.06360365287355876,
      -0.24504853907274596,
      0.12589151633772858,
      0.16283697601258704,
      0.3748839842910575,
      -0.36155859604571805,
      -0.3074919592983706,
      0.326167841827285,
      0.30409194381162846,
      0.027156670019590948,
      0.4272848920913449,
      -0.6803768725122321,
      0.0,
      0.0,
      0.0
    ],
    [
      -0.06863230296180493,
      -0.05192987314442901,
      0.39107862118764664,
      -0.5729640201425622,
      0.24072369120663523,
      -0.36585588058738916,
      0.806222735634924,
      0.08403983534326387,
      0.08069921547889022,
      -0.9597496115790697,
      0.657605611321399,
      -1.430666747973899,
      0.9827748608405553,
      -0.040304472548922575,
      -1.422403643776072,
      -1.0569076686104575,
      0.26423586952474265,
      0.6430585651701304,
      0.14428040561936936,
      0.09585695470086458,
      0.4542986159437129,
      -0.14008915145614342,
      0.13137925938042272,
      0.8062227380159865,
      -0.06233927003061333,
      0.08069921518123109,
      0.12067542800453772,
      0.6576056135807511,
      0.007648459470047329,
      0.014693730479746621,
      -0.022822370102999145,
      -0.022822370102999145,
      0.24653228235197322,
      -0.0032648607947577723,
      0.04654959524810679,
      0.25135583816906465,
      -0.18313091008599672,
      -0.496479539723318,
      -1.2760927199976106,
      -0.6758300951460287,
      0.01349423792741301,
      -0.46266117503220117,
      -0.022905892061911667,
      -0.21617865345162185,
      -0.08253924969930157,
      -0.46967249359481456,
      -0.23294035768901383,
      0.21768213925559285,
      -0.14131163200650879,
      0.10187741020309088,
      -0.14715939130888922,
      0.1917904469021299,
      -0.08214234871706856,
      0.1533181131529613,
      -0.20344775886270194,
      -0.09700454422391086,
      -0.24908187969933604,
      0.29508033389862165,
      0.3315923013123314,
      -0.08214234871706856,
      -0.10110738183363258,
      -0.20933023310594756,
      -0.32261492870138525,
      -0.7406985596292207,
      -0.1580674186101015,
      0.35480738492520114,
      -0.03540943778152017,
      0.8456504329264011,
      0.0,
      0.0,
      0.0
    ],
    [
      -1.3860026927546043,
      0.87561859745421,
      -0.5968367098915632,
      0.7139786762409926,
      -0.7312951801337486,
      0.4881331620587793,
      -1.367775268707411,
      1.165579742873662,
      -0.7208227419171814,
      1.5102091905856034,
      -1.104737171670965,
      1.1268379047730108,
      -0.4344385808021616,
      0.03514672608476055,
      1.2233386364822363,
      0.3534323142185472,
      -0.18100545137506058,
      -0.7333311326689715,
      0.18915555725565342,
      -0.21420487903520766,
      -0.5492593680796364,
      0.5421872088337971,
      -0.3084800834024148,
      -1.3677752737301516,
      0.18225654024837315,
      -0.7208227455175276,
      0.03755124027753778,
      -1.1047371770649455,
      -0.04203918423132759,
      7.931059005598343e-06,
      -0.15264035060055053,
      -0.15264035060055053,
      -0.2746004124534015,
      0.12314928027490223,
      0.35424047685058935,
      -0.03693832120588877,
      -0.11262272139198837,
      -0.21540215272957502,
      0.3492035614291571,
      0.5583308549141682,
      0.5671622166749525,
      0.6182251775837291,
      -0.014545950172828614,
      -0.4642701012606164,
      -0.016601416337798575,
      0.12824668735090908,
      -0.11516653224396284,
      0.16148929787080404,
      0.08750359891567581,
      0.2707868742063952,
      -0.21149459578037477,
      -0.03330303681275743,
      -0.06764653107237631,
      -0.35788638105816917,
      0.4917472863567067,
      0.2574472029933756,
      0.34149917284651676,
      -0.19944135217987885,
      -0.16795413700493994,
      -0.06764653107237631,
      -0.410967973199691,
      -0.25446688840499965,
      -0.29531709981227344,
      0.322350669377313,
      -0.18594166252458894,
      0.09157200534936322,
      0.3448642980331401,
      -0.08348752770351994,
      0.0,
      0.0,
      0.0
    ]
  ],
  "bias": [
    -0.6643299096483224,
    -1.1715902541920835,
    -0.20217186096594894
  ],
  "featureCount": 71,
  "samplesProcessed": 92156,
  "lastUpdated": "2026-01-09T21:24:15.768697",
  "version": 2,
  "metrics": {
    "accuracy": 0.37362732757498157,
    "precision": 0.3927307616596436,
    "recall": 0.37362732757498157,
    "f1_score": 0.3189403843153182,
    "roc_auc": 0.5583186027603889,
    "samples_trained": 92156,
    "num_classes": 3
  }
}