{
  "modelType": "passive-aggressive",
  "numClasses": 3,
  "classLabels": [
    "SHORT",
    "HOLD",
    "LONG"
  ],
  "weights": [
    [
      -0.47500168703845697,
      0.49764809591192927,
      -1.1224273145471158,
      0.9040584523199013,
      -1.2524928892653477,
      0.45167388784675117,
      -0.5116364762641361,
      0.6158722966485054,
      -0.5727253545055425,
      1.2451707723462304,
      -0.9700984922322572,
      1.515900187124285,
      -0.4280323828888274,
      0.06356273392589593,
      0.4960433599962301,
      0.5517308034810039,
      -0.06201193790776372,
      0.2335195067444315,
      -0.002577206377933167,
      0.10901032936140359,
      0.05947631131296402,
      -0.005950225822667733,
      0.10034900561875747,
      -0.5116364777901915,
      -0.10674792154834195,
      -0.572725357163202,
      0.11229219503508019,
      -0.9700984969946707,
      -0.027281351445757412,
      -0.018968182228616473,
      -0.033733797496642626,
      -0.033733797496642626,
      0.19173230003187566,
      0.044929953054027846,
      0.13012112891650313,
      -0.2937677029128199,
      0.18146832688290312,
      0.2068156013329182,
      0.6903902603160132,
      0.18692612751078824,
      0.41613010489576785,
      0.42276315397511166,
      -0.221655259067487,
      -0.023293284448978827,
      0.038718698113272706,
      -0.04554507738823795,
      0.22560093318632815,
      0.5123933330136878,
      0.11910454699327495,
      -0.20076814574193905,
      0.2503740901428711,
      0.3721381459431451,
      -0.30320392654437467,
      0.06128900470802733,
      -0.08087481997510194,
      0.12054134079347632,
      0.44128841223845144,
      -0.07516180258278925,
      0.05087031087612183,
      -0.30320392654437467,
      0.09311028304543952,
      -0.5791487073843382,
      -0.2025316492447208,
      0.6928320472348841,
      0.08132017549074463,
      0.2046239564185427,
      -0.5006181041106549,
      -0.5351468519453211,
      0.0,
      0.0,
      0.0
    ],
    [
      0.07917844110111541,
      0.11446057841649765,
      0.23828209058526237,
      -0.4340741884661995,
      0.2353696894895018,
      0.0723414923332065,
      0.7534177466927352,
      -0.2703271369830559,
      -0.0824034377941124,
      -0.9324801824078351,
      0.9408138044877048,
      -1.166997629962019,
      0.5211677146681177,
      -0.41026960728538564,
      -1.6964634188327503,
      -1.1941515290232203,
      0.28883072601384857,
      0.7858434901905111,
      0.352566181284429,
      0.041589704915938476,
      0.17662307737954017,
      0.39710824981772114,
      0.1095184456091486,
      0.7534177489524532,
      0.14779917263148198,
      -0.08240343889194976,
      -0.030637756683615968,
      0.9408138082570273,
      -0.0404962806084257,
      -0.05318693600552286,
      0.03610249559171197,
      0.03610249559171197,
      0.4744632267249149,
      0.41607375571615923,
      0.16351053602775778,
      0.09296560006286311,
      0.19871332626684482,
      -0.12500172956012637,
      -1.0983715574834956,
      -0.8596630069715298,
      0.1280523027021018,
      -0.2526401077862281,
      0.4194387557074692,
      0.22568860971878735,
      -0.02081758446621615,
      -0.06955768167632136,
      -0.14329244173435401,
      0.09523071026463563,
      -0.17096208712051933,
      0.18062964680867685,
      0.0976614140402177,
      -0.10727764961381905,
      0.06392424958688434,
      -0.062374186947109105,
      0.06814149940801466,
      -0.006798114736869424,
      0.09496782932597153,
      0.08864036377949472,
      -0.2342507640796966,
      0.06392424958688434,
      -0.04342505551662626,
      -0.01622441882914581,
      -0.14074971577337783,
      -0.576137160935311,
      -0.16516950795423557,
      0.3787431737298606,
      0.06140641094248508,
      0.4453918880459116,
      0.0,
      0.0,
      0.0
    ],
    [
      -1.0247967728282528,
      0.9118018536417474,
      -0.43885410723977136,
      0.7799365855522209,
      -0.685056574739475,
      0.5984861965368216,
      -0.9491985844347001,
      1.3283500546188272,
      -0.5380372789346508,
      1.526122244800138,
      -0.9613356497114928,
      1.4777500304233582,
      -0.5937000453224209,
      0.07088850698755833,
      1.305539117941496,
      0.3736751158933051,
      -0.6441652253723438,
      -0.6150368414157694,
      0.02619823445477877,
      0.07564140902971153,
      -0.27655306545509606,
      -0.030257073252227477,
      -0.2624881744287646,
      -0.9491985879969308,
      0.10355283597072962,
      -0.5380372817216459,
      -0.07731222709221529,
      -0.9613356547125665,
      -0.15768433216498207,
      -0.16386973420844594,
      -0.00825648022170719,
      -0.00825648022170719,
      -0.4016667272556484,
      0.38793392758041517,
      0.5263137542163044,
      -0.36313648805405624,
      -0.0949943706112795,
      0.01292641354903628,
      -0.003554531187822765,
      0.9407887402102137,
      -0.14648246291022973,
      0.254851080847763,
      -0.0006572720803724684,
      0.3482337078546166,
      0.009154778738877281,
      -0.014709891490894345,
      -0.1217854504776688,
      -0.10123455780454624,
      0.3766474419745483,
      -0.4326898421412728,
      -0.0050719854742628905,
      -0.09801731284595686,
      -0.0927949196870073,
      0.21568896785800198,
      -0.03647596315333992,
      0.42291213724251603,
      -0.021373022361653317,
      0.03511298403102013,
      -0.16297428473870848,
      -0.0927949196870073,
      -0.044522868249790674,
      0.10194661139025253,
      -0.043613923146250025,
      0.4688916218455153,
      -0.006738992153685373,
      0.18376510517990732,
      -0.112957219280929,
      -0.2956726077550956,
      0.0,
      0.0,
      0.0
    ]
  ],
  "bias": [
    -0.7817395699897043,
    -0.9919801627397603,
    -0.8851094919474032
  ],
  "featureCount": 71,
  "samplesProcessed": 92204,
  "lastUpdated": "2026-01-20T21:10:16.105991",
  "version": 2,
  "metrics": {
    "accuracy": 0.3670122771246367,
    "precision": 0.3696953703157425,
    "recall": 0.3670122771246367,
    "f1_score": 0.3636492455657736,
    "roc_auc": 0.5402693976570861,
    "samples_trained": 92204,
    "num_classes": 3
  }
}