{
  "modelType": "sgd",
  "numClasses": 3,
  "classLabels": [
    "SHORT",
    "HOLD",
    "LONG"
  ],
  "weights": [
    [
      0.05193153273335765,
      0.18428787858961185,
      -0.1279098075470235,
      0.06473514460870283,
      -0.056136090915842686,
      0.11373986950894015,
      -0.11972839040700592,
      0.055322369885959385,
      -0.09379192878121896,
      0.26150996266752935,
      -0.22686439983422615,
      0.18989403406893496,
      0.05920358715710691,
      0.07402761161418056,
      0.06338540474569937,
      0.11537479650211312,
      0.08933546504669475,
      0.17443165864772237,
      0.2525739140748368,
      0.03261488185249769,
      -0.11623828040771782,
      -0.08256808354786163,
      -0.07613834664922582,
      -0.11972839078396408,
      0.010028691441787129,
      -0.0937919291975695,
      0.04976792215703569,
      -0.22686440092120386,
      -0.009719201353468973,
      -0.022031217799212428,
      0.04056688006938735,
      0.04056688006938735,
      0.07831452250213193,
      -0.1328745063375707,
      0.14133527451641206,
      -0.1569349857113112,
      -0.019647004281602744,
      0.011445076805564017,
      0.3181627475943923,
      0.32063762079539004,
      0.08815348298713654,
      0.11882951616314702,
      0.03965986361105587,
      -0.05765402002868076,
      0.05534429907121656,
      0.034253414257213254,
      0.007145235437895032,
      -0.005850518262005723,
      0.02641001163643037,
      0.0208236511166686,
      -0.03587886811130534,
      -0.03427105017522634,
      -0.045281715824938694,
      -0.0169401694527105,
      0.022426097557998223,
      0.057520770549804194,
      0.02800176861159164,
      -0.17798875016924098,
      -0.039618257404311887,
      -0.045281715824938694,
      0.01025829114914307,
      -0.17835447643395821,
      0.02453264634722314,
      0.09659235626756184,
      -0.06469792264940454,
      0.05109019897224549,
      -0.02796583373616806,
      -0.36613620682834686,
      0.0,
      0.0,
      0.0
    ],
    [
      0.07731676463928838,
      -0.0010251085637919773,
      0.06867338559752537,
      -0.05696137768333446,
      0.00030882484202297454,
      -0.13015658248324832,
      0.07237254974545179,
      -0.09390497394334453,
      0.07898507561412348,
      -0.19393742361166336,
      0.20485427005703738,
      -0.1495204583164372,
      -0.010860209770889492,
      -0.07981434382032968,
      -0.12490480826323819,
      -0.12726539443815693,
      -0.1536674580539609,
      -0.1878591922727311,
      -0.276644279241827,
      0.01663178026360781,
      0.16570449005389848,
      0.11283909460488212,
      0.03686898619114836,
      0.07237255003218299,
      0.006156336228461066,
      0.0789850760540123,
      -0.004805058474709104,
      0.2048542711550986,
      -0.02574229662806677,
      -0.035951456510821676,
      0.030324156786530925,
      0.030324156786530925,
      0.16708147025571926,
      0.14880188827333746,
      -0.25041304865655667,
      0.12470932917248785,
      -0.012691040857372486,
      -0.1037622606823543,
      -0.9232060645827481,
      -0.9650374474121138,
      -0.03404830939650125,
      0.017911075686311402,
      -0.029044172383014696,
      0.009833463093101815,
      -0.1467930827157905,
      -0.034395797334544176,
      -0.0019570085607173143,
      0.017299685092283912,
      0.01648601743972185,
      0.009696941349091126,
      -0.038437069552128986,
      0.019312324359761338,
      0.001924204080160449,
      -0.03439616389111767,
      -0.05500268847044473,
      -0.0828109099638752,
      -0.03654725503027047,
      0.16426458880541445,
      0.047664162706170354,
      0.001924204080160449,
      -0.013597246752061996,
      -0.015227822765276147,
      -0.08444653951644997,
      -0.10165876736171657,
      0.04295332024940274,
      -0.07355314400676818,
      0.08511472921745937,
      0.7914515254535671,
      0.0,
      0.0,
      0.0
    ],
    [
      -0.14143444298792393,
      -0.046897716247383946,
      -0.06954733958900321,
      0.07800520003929573,
      -0.12773371123259591,
      0.09922111045143434,
      -0.146932156863082,
      0.2061960869390723,
      -0.1173073604691837,
      0.19208673615052704,
      -0.20408889329913005,
      0.27952270040208255,
      0.02770689933461133,
      0.011334939439066945,
      0.06604023254588963,
      -0.045060491707085065,
      0.045888086688837974,
      0.03396945201694706,
      0.0682526735780238,
      -0.07515931324207333,
      -0.054747570559516415,
      -0.04071342654233293,
      -0.024237236456624154,
      -0.14693215735964754,
      -0.0020191112703849255,
      -0.1173073610121843,
      -0.06362154911656605,
      -0.20408889426912674,
      -0.023858851611428058,
      -0.01216472737365194,
      -0.044732487348968175,
      -0.044732487348968175,
      -0.2614663272370688,
      -0.008450006110653966,
      0.1589747591966593,
      -0.006946530058969866,
      -0.10581179404491194,
      -0.017203590141931867,
      0.3515675752127859,
      0.5462024549227049,
      -0.01014706868496065,
      0.0037934452259432796,
      0.04142165354531098,
      0.024392646759522643,
      0.05529903235857594,
      0.0037476226811537948,
      0.048682844039290116,
      0.01003207000585925,
      0.0669072943433273,
      0.026723553745111282,
      -0.018995956186696826,
      0.03956895324772344,
      0.014591113999612826,
      -0.00701350010510148,
      0.045451960710655645,
      0.05694758696574118,
      -0.02860278883340698,
      -0.01677965763704259,
      -0.002066597224718399,
      0.014591113999612826,
      -0.006185897265083219,
      -0.018700305684740848,
      0.026909447208588583,
      0.024849718022259867,
      -0.02462279407245641,
      -0.004599447580536319,
      -0.051717943411029525,
      -0.30220227497361396,
      0.0,
      0.0,
      0.0
    ]
  ],
  "bias": [
    -0.9324746390304774,
    -0.9372357791667344,
    -0.6206279726486718
  ],
  "featureCount": 71,
  "samplesProcessed": 92204,
  "lastUpdated": "2026-01-20T21:10:16.104232",
  "version": 2,
  "metrics": {
    "accuracy": 0.4117391870200859,
    "precision": 0.41250375107974785,
    "recall": 0.4117391870200859,
    "f1_score": 0.4055367369492044,
    "roc_auc": 0.5991834714825023,
    "samples_trained": 92204,
    "num_classes": 3
  }
}