{
  "modelType": "sgd",
  "numClasses": 3,
  "classLabels": [
    "SHORT",
    "HOLD",
    "LONG"
  ],
  "weights": [
    [
      -0.004622247082280288,
      0.13845852752075757,
      -0.1680891814481384,
      0.026862661926643935,
      -0.07293391390858339,
      0.10857259468638987,
      -0.08517377308414893,
      0.087286776543324,
      -0.11847904306407578,
      0.21612392093167074,
      -0.1917484673124654,
      0.18535389055198825,
      0.04413576372294483,
      0.0659444690092639,
      0.05082183142905637,
      0.0885710962245819,
      0.099545458733488,
      0.1448246783995942,
      0.19812510593351668,
      -0.005226518685225317,
      -0.0524897506024339,
      -0.14813079320515152,
      0.0033649590433854587,
      -0.08517377332643292,
      -0.05034339173650157,
      -0.11847904357976304,
      -0.0261857297696705,
      -0.19174846819076413,
      -0.01750573402429484,
      -0.02405202633111145,
      0.019257096486582373,
      0.019257096486582373,
      0.05987462781280272,
      -0.13369958482125652,
      0.10534654157200421,
      -0.13018538950457614,
      -0.01594916532057831,
      0.07513151529067508,
      0.2591440582158832,
      0.38354700894656946,
      -0.029382723761565283,
      0.08020814808268739,
      0.023415550064817135,
      -0.028267306157535303,
      0.11307384768005538,
      0.07341540336740107,
      0.11809412540939052,
      0.012218942607638611,
      0.03418198497736425,
      0.022694355243573803,
      -0.030293340142851014,
      -0.01860191857096627,
      -0.0009762631610238902,
      -0.001075476777483987,
      -0.08870954575188875,
      0.0015956579196553043,
      0.0625411433467795,
      -0.20199707749273937,
      -0.027436806235641126,
      -0.0009762631610238902,
      0.012227839790322869,
      -0.030057423438196822,
      -0.032685262696406224,
      0.10726689288207725,
      0.06514960392606729,
      0.0660929483072991,
      0.0037103591087319903,
      -0.4448869844037274,
      0.0,
      0.0,
      0.0
    ],
    [
      0.0492327673690029,
      -0.03323479242738799,
      0.07089860456049656,
      -0.0719492254358145,
      0.04854637256621133,
      -0.09101334285091656,
      0.07943583354543884,
      -0.10133021388264517,
      0.05657026671053114,
      -0.24187051738643292,
      0.2157587330800499,
      -0.14974405901302615,
      -0.009735319177625771,
      -0.08835795894214629,
      -0.12982945744170102,
      -0.1236400222479825,
      -0.19234638640947385,
      -0.20482772817729872,
      -0.2776403099180726,
      -0.04095004957391315,
      0.2626936624307414,
      0.0258493072584665,
      0.041611906616351446,
      0.07943583385672112,
      -0.08327973474859508,
      0.0565702670359812,
      0.045017441776829134,
      0.21575873422833475,
      -0.059451421358058865,
      -0.06356476026811553,
      0.003019707840552349,
      0.003019707840552349,
      0.1641199389441513,
      0.11302900991274535,
      -0.28106230466709275,
      0.10681639737630566,
      0.014237737002674028,
      -0.1357593957037202,
      -0.9280932178376363,
      -0.9734938380203242,
      -0.009559344045758587,
      -0.06943366179527907,
      0.0023089833551824595,
      -0.009386322157189505,
      -0.15621727545655803,
      -0.04403998957266984,
      -0.015651627075538296,
      -0.031752509593806315,
      0.009766799719646791,
      -0.07047658009770752,
      0.0019835978419477196,
      0.04182431788867229,
      -0.000796098040584522,
      -0.05540069013464785,
      -0.010970071300099025,
      -0.010195980055573683,
      -0.054131259176176796,
      0.19685076462838763,
      0.0988317849218842,
      -0.000796098040584522,
      0.05909692275714217,
      0.008845335309489971,
      -0.03245822152414631,
      -0.034990106612956845,
      -0.06642569839863181,
      0.014870608697064358,
      0.12784540963486377,
      0.8433664333967799,
      0.0,
      0.0,
      0.0
    ],
    [
      -0.1313891180346668,
      -0.030268648730025622,
      -0.0727349617155646,
      0.08046334011111385,
      -0.12509446155275747,
      0.09455652659959257,
      -0.168897326499697,
      0.19083835935974677,
      -0.11883818761956341,
      0.219002897161689,
      -0.20950165945127794,
      0.2924623996650832,
      0.05229289624441998,
      0.04647315369939932,
      0.08847959337642887,
      -0.015015306389958152,
      0.08883884698082944,
      0.042810573900196096,
      0.11246658013129232,
      0.03862260419893754,
      -0.24933188948895185,
      0.03307982527837913,
      -0.050126911704919196,
      -0.16889732707908536,
      -0.0020130163273326188,
      -0.11883818817663903,
      -0.10040716595496813,
      -0.2095016604551212,
      -0.02337604915774173,
      -0.02813600807522665,
      0.012006861777704835,
      0.012006861777704835,
      -0.28766931075932034,
      -0.027554051871925844,
      0.14782859511659643,
      0.0028629993257604605,
      -0.03203383154209777,
      0.09652192461373484,
      0.40074508647236673,
      0.4363798408008165,
      0.1309528934901312,
      0.0270937163082318,
      0.04255003420203714,
      -0.02094128696085636,
      0.05276234704409563,
      -0.03838170124566208,
      -0.055883565230909406,
      -0.004882316636089109,
      -0.0037584838659546487,
      0.026598656399639826,
      0.04347288371296097,
      0.012326561589687953,
      -0.051075613638648654,
      7.052002445888469e-05,
      0.07630882685961242,
      -0.004149826349511983,
      0.048067229558745,
      0.013426492354424096,
      -0.016713392491510118,
      -0.051075613638648654,
      -0.021871153631941045,
      -0.10180593063047687,
      0.07600420991013052,
      0.044700418839287014,
      -0.06962897615332435,
      0.00544415179128051,
      -0.128453913140085,
      -0.30154356992096615,
      0.0,
      0.0,
      0.0
    ]
  ],
  "bias": [
    -0.8534569054106756,
    -0.9137221350219814,
    -0.6714598284509585
  ],
  "featureCount": 71,
  "samplesProcessed": 92156,
  "lastUpdated": "2026-01-09T21:24:15.767540",
  "version": 2,
  "metrics": {
    "accuracy": 0.4154260167541994,
    "precision": 0.41421304447840696,
    "recall": 0.4154260167541994,
    "f1_score": 0.411679479303953,
    "roc_auc": 0.5994507663739278,
    "samples_trained": 92156,
    "num_classes": 3
  }
}